digraph Tree {
node [shape=box, fontname="helvetica"] ;
edge [fontname="helvetica"] ;
0 [label="FICO <= 0.5\ngini = 0.441\nsamples = 9238\nvalue = [3029, 6209]\nclass = Yes"] ;
1 [label="term <= 0.5\ngini = 0.251\nsamples = 5160\nvalue = [760.0, 4400.0]\nclass = Yes"] ;
0 -> 1 [labeldistance=2.5, labelangle=45, headlabel="True"] ;
2 [label="age <= 0.5\ngini = 0.182\nsamples = 4894\nvalue = [494, 4400]\nclass = Yes"] ;
1 -> 2 ;
3 [label="home_ownership <= 1.5\ngini = 0.263\nsamples = 3168\nvalue = [494, 2674]\nclass = Yes"] ;
2 -> 3 ;
4 [label="purpose <= 2.5\ngini = 0.221\nsamples = 1608\nvalue = [203, 1405]\nclass = Yes"] ;
3 -> 4 ;
5 [label="gender <= 0.5\ngini = 0.24\nsamples = 1258\nvalue = [175.0, 1083.0]\nclass = Yes"] ;
4 -> 5 ;
6 [label="home_ownership <= 0.5\ngini = 0.17\nsamples = 181\nvalue = [17, 164]\nclass = Yes"] ;
5 -> 6 ;
7 [label="purpose <= 1.5\ngini = 0.135\nsamples = 151\nvalue = [11, 140]\nclass = Yes"] ;
6 -> 7 ;
8 [label="purpose <= 0.5\ngini = 0.128\nsamples = 146\nvalue = [10, 136]\nclass = Yes"] ;
7 -> 8 ;
9 [label="gini = 0.074\nsamples = 26\nvalue = [1, 25]\nclass = Yes"] ;
8 -> 9 ;
10 [label="gini = 0.139\nsamples = 120\nvalue = [9, 111]\nclass = Yes"] ;
8 -> 10 ;
11 [label="gini = 0.32\nsamples = 5\nvalue = [1, 4]\nclass = Yes"] ;
7 -> 11 ;
12 [label="purpose <= 0.5\ngini = 0.32\nsamples = 30\nvalue = [6, 24]\nclass = Yes"] ;
6 -> 12 ;
13 [label="gini = 0.5\nsamples = 4\nvalue = [2, 2]\nclass = No"] ;
12 -> 13 ;
14 [label="purpose <= 1.5\ngini = 0.26\nsamples = 26\nvalue = [4, 22]\nclass = Yes"] ;
12 -> 14 ;
15 [label="gini = 0.269\nsamples = 25\nvalue = [4, 21]\nclass = Yes"] ;
14 -> 15 ;
16 [label="gini = 0.0\nsamples = 1\nvalue = [0, 1]\nclass = Yes"] ;
14 -> 16 ;
17 [label="purpose <= 0.5\ngini = 0.25\nsamples = 1077\nvalue = [158, 919]\nclass = Yes"] ;
5 -> 17 ;
18 [label="home_ownership <= 0.5\ngini = 0.277\nsamples = 289\nvalue = [48, 241]\nclass = Yes"] ;
17 -> 18 ;
19 [label="gini = 0.276\nsamples = 242\nvalue = [40, 202]\nclass = Yes"] ;
18 -> 19 ;
20 [label="gini = 0.282\nsamples = 47\nvalue = [8, 39]\nclass = Yes"] ;
18 -> 20 ;
21 [label="home_ownership <= 0.5\ngini = 0.24\nsamples = 788\nvalue = [110, 678]\nclass = Yes"] ;
17 -> 21 ;
22 [label="purpose <= 1.5\ngini = 0.237\nsamples = 676\nvalue = [93, 583]\nclass = Yes"] ;
21 -> 22 ;
23 [label="gini = 0.236\nsamples = 657\nvalue = [90, 567]\nclass = Yes"] ;
22 -> 23 ;
24 [label="gini = 0.266\nsamples = 19\nvalue = [3, 16]\nclass = Yes"] ;
22 -> 24 ;
25 [label="purpose <= 1.5\ngini = 0.257\nsamples = 112\nvalue = [17, 95]\nclass = Yes"] ;
21 -> 25 ;
26 [label="gini = 0.261\nsamples = 110\nvalue = [17, 93]\nclass = Yes"] ;
25 -> 26 ;
27 [label="gini = 0.0\nsamples = 2\nvalue = [0, 2]\nclass = Yes"] ;
25 -> 27 ;
28 [label="home_ownership <= 0.5\ngini = 0.147\nsamples = 350\nvalue = [28, 322]\nclass = Yes"] ;
4 -> 28 ;
29 [label="gender <= 0.5\ngini = 0.171\nsamples = 297\nvalue = [28, 269]\nclass = Yes"] ;
28 -> 29 ;
30 [label="purpose <= 3.5\ngini = 0.033\nsamples = 59\nvalue = [1, 58]\nclass = Yes"] ;
29 -> 30 ;
31 [label="gini = 0.0\nsamples = 17\nvalue = [0, 17]\nclass = Yes"] ;
30 -> 31 ;
32 [label="purpose <= 4.5\ngini = 0.046\nsamples = 42\nvalue = [1, 41]\nclass = Yes"] ;
30 -> 32 ;
33 [label="gini = 0.061\nsamples = 32\nvalue = [1, 31]\nclass = Yes"] ;
32 -> 33 ;
34 [label="gini = 0.0\nsamples = 10\nvalue = [0, 10]\nclass = Yes"] ;
32 -> 34 ;
35 [label="purpose <= 4.5\ngini = 0.201\nsamples = 238\nvalue = [27, 211]\nclass = Yes"] ;
29 -> 35 ;
36 [label="purpose <= 3.5\ngini = 0.188\nsamples = 210\nvalue = [22, 188]\nclass = Yes"] ;
35 -> 36 ;
37 [label="gini = 0.247\nsamples = 83\nvalue = [12, 71]\nclass = Yes"] ;
36 -> 37 ;
38 [label="gini = 0.145\nsamples = 127\nvalue = [10, 117]\nclass = Yes"] ;
36 -> 38 ;
39 [label="gini = 0.293\nsamples = 28\nvalue = [5, 23]\nclass = Yes"] ;
35 -> 39 ;
40 [label="gini = 0.0\nsamples = 53\nvalue = [0, 53]\nclass = Yes"] ;
28 -> 40 ;
41 [label="purpose <= 0.5\ngini = 0.303\nsamples = 1560\nvalue = [291, 1269]\nclass = Yes"] ;
3 -> 41 ;
42 [label="gender <= 0.5\ngini = 0.375\nsamples = 380\nvalue = [95, 285]\nclass = Yes"] ;
41 -> 42 ;
43 [label="gini = 0.397\nsamples = 33\nvalue = [9, 24]\nclass = Yes"] ;
42 -> 43 ;
44 [label="gini = 0.373\nsamples = 347\nvalue = [86, 261]\nclass = Yes"] ;
42 -> 44 ;
45 [label="purpose <= 4.5\ngini = 0.277\nsamples = 1180\nvalue = [196, 984]\nclass = Yes"] ;
41 -> 45 ;
46 [label="gender <= 0.5\ngini = 0.281\nsamples = 1124\nvalue = [190, 934]\nclass = Yes"] ;
45 -> 46 ;
47 [label="purpose <= 3.5\ngini = 0.238\nsamples = 159\nvalue = [22, 137]\nclass = Yes"] ;
46 -> 47 ;
48 [label="purpose <= 1.5\ngini = 0.232\nsamples = 157\nvalue = [21, 136]\nclass = Yes"] ;
47 -> 48 ;
49 [label="gini = 0.233\nsamples = 141\nvalue = [19, 122]\nclass = Yes"] ;
48 -> 49 ;
50 [label="purpose <= 2.5\ngini = 0.219\nsamples = 16\nvalue = [2, 14]\nclass = Yes"] ;
48 -> 50 ;
51 [label="gini = 0.0\nsamples = 1\nvalue = [0, 1]\nclass = Yes"] ;
50 -> 51 ;
52 [label="gini = 0.231\nsamples = 15\nvalue = [2, 13]\nclass = Yes"] ;
50 -> 52 ;
53 [label="gini = 0.5\nsamples = 2\nvalue = [1, 1]\nclass = No"] ;
47 -> 53 ;
54 [label="purpose <= 3.5\ngini = 0.288\nsamples = 965\nvalue = [168, 797]\nclass = Yes"] ;
46 -> 54 ;
55 [label="purpose <= 2.5\ngini = 0.289\nsamples = 953\nvalue = [167, 786]\nclass = Yes"] ;
54 -> 55 ;
56 [label="purpose <= 1.5\ngini = 0.291\nsamples = 866\nvalue = [153, 713]\nclass = Yes"] ;
55 -> 56 ;
57 [label="gini = 0.29\nsamples = 847\nvalue = [149, 698]\nclass = Yes"] ;
56 -> 57 ;
58 [label="gini = 0.332\nsamples = 19\nvalue = [4, 15]\nclass = Yes"] ;
56 -> 58 ;
59 [label="gini = 0.27\nsamples = 87\nvalue = [14, 73]\nclass = Yes"] ;
55 -> 59 ;
60 [label="gini = 0.153\nsamples = 12\nvalue = [1, 11]\nclass = Yes"] ;
54 -> 60 ;
61 [label="gender <= 0.5\ngini = 0.191\nsamples = 56\nvalue = [6, 50]\nclass = Yes"] ;
45 -> 61 ;
62 [label="gini = 0.165\nsamples = 11\nvalue = [1, 10]\nclass = Yes"] ;
61 -> 62 ;
63 [label="gini = 0.198\nsamples = 45\nvalue = [5, 40]\nclass = Yes"] ;
61 -> 63 ;
64 [label="gini = 0.0\nsamples = 1726\nvalue = [0, 1726]\nclass = Yes"] ;
2 -> 64 ;
65 [label="gini = 0.0\nsamples = 266\nvalue = [266, 0]\nclass = No"] ;
1 -> 65 ;
66 [label="gender <= 0.5\ngini = 0.494\nsamples = 4078\nvalue = [2269, 1809]\nclass = No"] ;
0 -> 66 [labeldistance=2.5, labelangle=-45, headlabel="False"] ;
67 [label="age <= 0.5\ngini = 0.352\nsamples = 1829\nvalue = [1412, 417]\nclass = No"] ;
66 -> 67 ;
68 [label="purpose <= 3.5\ngini = 0.326\nsamples = 726\nvalue = [577, 149]\nclass = No"] ;
67 -> 68 ;
69 [label="home_ownership <= 0.5\ngini = 0.336\nsamples = 636\nvalue = [500.0, 136.0]\nclass = No"] ;
68 -> 69 ;
70 [label="purpose <= 0.5\ngini = 0.363\nsamples = 298\nvalue = [227, 71]\nclass = No"] ;
69 -> 70 ;
71 [label="gini = 0.437\nsamples = 59\nvalue = [40, 19]\nclass = No"] ;
70 -> 71 ;
72 [label="purpose <= 1.5\ngini = 0.34\nsamples = 239\nvalue = [187, 52]\nclass = No"] ;
70 -> 72 ;
73 [label="gini = 0.335\nsamples = 193\nvalue = [152, 41]\nclass = No"] ;
72 -> 73 ;
74 [label="purpose <= 2.5\ngini = 0.364\nsamples = 46\nvalue = [35, 11]\nclass = No"] ;
72 -> 74 ;
75 [label="gini = 0.408\nsamples = 7\nvalue = [5, 2]\nclass = No"] ;
74 -> 75 ;
76 [label="gini = 0.355\nsamples = 39\nvalue = [30, 9]\nclass = No"] ;
74 -> 76 ;
77 [label="home_ownership <= 1.5\ngini = 0.311\nsamples = 338\nvalue = [273, 65]\nclass = No"] ;
69 -> 77 ;
78 [label="purpose <= 2.5\ngini = 0.334\nsamples = 52\nvalue = [41, 11]\nclass = No"] ;
77 -> 78 ;
79 [label="purpose <= 0.5\ngini = 0.359\nsamples = 47\nvalue = [36, 11]\nclass = No"] ;
78 -> 79 ;
80 [label="gini = 0.165\nsamples = 11\nvalue = [10, 1]\nclass = No"] ;
79 -> 80 ;
81 [label="purpose <= 1.5\ngini = 0.401\nsamples = 36\nvalue = [26, 10]\nclass = No"] ;
79 -> 81 ;
82 [label="gini = 0.389\nsamples = 34\nvalue = [25, 9]\nclass = No"] ;
81 -> 82 ;
83 [label="gini = 0.5\nsamples = 2\nvalue = [1, 1]\nclass = No"] ;
81 -> 83 ;
84 [label="gini = 0.0\nsamples = 5\nvalue = [5, 0]\nclass = No"] ;
78 -> 84 ;
85 [label="purpose <= 2.5\ngini = 0.306\nsamples = 286\nvalue = [232, 54]\nclass = No"] ;
77 -> 85 ;
86 [label="purpose <= 1.5\ngini = 0.299\nsamples = 257\nvalue = [210, 47]\nclass = No"] ;
85 -> 86 ;
87 [label="purpose <= 0.5\ngini = 0.303\nsamples = 253\nvalue = [206, 47]\nclass = No"] ;
86 -> 87 ;
88 [label="gini = 0.32\nsamples = 45\nvalue = [36, 9]\nclass = No"] ;
87 -> 88 ;
89 [label="gini = 0.299\nsamples = 208\nvalue = [170, 38]\nclass = No"] ;
87 -> 89 ;
90 [label="gini = 0.0\nsamples = 4\nvalue = [4, 0]\nclass = No"] ;
86 -> 90 ;
91 [label="gini = 0.366\nsamples = 29\nvalue = [22, 7]\nclass = No"] ;
85 -> 91 ;
92 [label="home_ownership <= 1.5\ngini = 0.247\nsamples = 90\nvalue = [77.0, 13.0]\nclass = No"] ;
68 -> 92 ;
93 [label="home_ownership <= 0.5\ngini = 0.262\nsamples = 71\nvalue = [60, 11]\nclass = No"] ;
92 -> 93 ;
94 [label="purpose <= 4.5\ngini = 0.236\nsamples = 66\nvalue = [57, 9]\nclass = No"] ;
93 -> 94 ;
95 [label="gini = 0.249\nsamples = 55\nvalue = [47, 8]\nclass = No"] ;
94 -> 95 ;
96 [label="gini = 0.165\nsamples = 11\nvalue = [10, 1]\nclass = No"] ;
94 -> 96 ;
97 [label="purpose <= 4.5\ngini = 0.48\nsamples = 5\nvalue = [3, 2]\nclass = No"] ;
93 -> 97 ;
98 [label="gini = 0.5\nsamples = 2\nvalue = [1, 1]\nclass = No"] ;
97 -> 98 ;
99 [label="gini = 0.444\nsamples = 3\nvalue = [2, 1]\nclass = No"] ;
97 -> 99 ;
100 [label="purpose <= 4.5\ngini = 0.188\nsamples = 19\nvalue = [17, 2]\nclass = No"] ;
92 -> 100 ;
101 [label="gini = 0.0\nsamples = 4\nvalue = [4, 0]\nclass = No"] ;
100 -> 101 ;
102 [label="gini = 0.231\nsamples = 15\nvalue = [13, 2]\nclass = No"] ;
100 -> 102 ;
103 [label="purpose <= 2.5\ngini = 0.368\nsamples = 1103\nvalue = [835, 268]\nclass = No"] ;
67 -> 103 ;
104 [label="purpose <= 0.5\ngini = 0.352\nsamples = 829\nvalue = [640, 189]\nclass = No"] ;
103 -> 104 ;
105 [label="home_ownership <= 0.5\ngini = 0.326\nsamples = 171\nvalue = [136, 35]\nclass = No"] ;
104 -> 105 ;
106 [label="gini = 0.332\nsamples = 81\nvalue = [64, 17]\nclass = No"] ;
105 -> 106 ;
107 [label="home_ownership <= 1.5\ngini = 0.32\nsamples = 90\nvalue = [72, 18]\nclass = No"] ;
105 -> 107 ;
108 [label="gini = 0.0\nsamples = 3\nvalue = [3, 0]\nclass = No"] ;
107 -> 108 ;
109 [label="gini = 0.328\nsamples = 87\nvalue = [69, 18]\nclass = No"] ;
107 -> 109 ;
110 [label="home_ownership <= 0.5\ngini = 0.359\nsamples = 658\nvalue = [504, 154]\nclass = No"] ;
104 -> 110 ;
111 [label="purpose <= 1.5\ngini = 0.341\nsamples = 303\nvalue = [237, 66]\nclass = No"] ;
110 -> 111 ;
112 [label="gini = 0.336\nsamples = 290\nvalue = [228, 62]\nclass = No"] ;
111 -> 112 ;
113 [label="gini = 0.426\nsamples = 13\nvalue = [9, 4]\nclass = No"] ;
111 -> 113 ;
114 [label="purpose <= 1.5\ngini = 0.373\nsamples = 355\nvalue = [267, 88]\nclass = No"] ;
110 -> 114 ;
115 [label="home_ownership <= 1.5\ngini = 0.376\nsamples = 347\nvalue = [260, 87]\nclass = No"] ;
114 -> 115 ;
116 [label="gini = 0.411\nsamples = 52\nvalue = [37.0, 15.0]\nclass = No"] ;
115 -> 116 ;
117 [label="gini = 0.369\nsamples = 295\nvalue = [223, 72]\nclass = No"] ;
115 -> 117 ;
118 [label="gini = 0.219\nsamples = 8\nvalue = [7, 1]\nclass = No"] ;
114 -> 118 ;
119 [label="purpose <= 4.5\ngini = 0.41\nsamples = 274\nvalue = [195, 79]\nclass = No"] ;
103 -> 119 ;
120 [label="home_ownership <= 1.5\ngini = 0.42\nsamples = 227\nvalue = [159, 68]\nclass = No"] ;
119 -> 120 ;
121 [label="home_ownership <= 0.5\ngini = 0.41\nsamples = 167\nvalue = [119.0, 48.0]\nclass = No"] ;
120 -> 121 ;
122 [label="purpose <= 3.5\ngini = 0.422\nsamples = 149\nvalue = [104, 45]\nclass = No"] ;
121 -> 122 ;
123 [label="gini = 0.429\nsamples = 61\nvalue = [42, 19]\nclass = No"] ;
122 -> 123 ;
124 [label="gini = 0.416\nsamples = 88\nvalue = [62, 26]\nclass = No"] ;
122 -> 124 ;
125 [label="purpose <= 3.5\ngini = 0.278\nsamples = 18\nvalue = [15, 3]\nclass = No"] ;
121 -> 125 ;
126 [label="gini = 0.198\nsamples = 9\nvalue = [8, 1]\nclass = No"] ;
125 -> 126 ;
127 [label="gini = 0.346\nsamples = 9\nvalue = [7, 2]\nclass = No"] ;
125 -> 127 ;
128 [label="purpose <= 3.5\ngini = 0.444\nsamples = 60\nvalue = [40, 20]\nclass = No"] ;
120 -> 128 ;
129 [label="gini = 0.444\nsamples = 57\nvalue = [38, 19]\nclass = No"] ;
128 -> 129 ;
130 [label="gini = 0.444\nsamples = 3\nvalue = [2, 1]\nclass = No"] ;
128 -> 130 ;
131 [label="home_ownership <= 1.5\ngini = 0.359\nsamples = 47\nvalue = [36, 11]\nclass = No"] ;
119 -> 131 ;
132 [label="home_ownership <= 0.5\ngini = 0.408\nsamples = 21\nvalue = [15, 6]\nclass = No"] ;
131 -> 132 ;
133 [label="gini = 0.401\nsamples = 18\nvalue = [13, 5]\nclass = No"] ;
132 -> 133 ;
134 [label="gini = 0.444\nsamples = 3\nvalue = [2, 1]\nclass = No"] ;
132 -> 134 ;
135 [label="gini = 0.311\nsamples = 26\nvalue = [21, 5]\nclass = No"] ;
131 -> 135 ;
136 [label="age <= 0.5\ngini = 0.472\nsamples = 2249\nvalue = [857, 1392]\nclass = Yes"] ;
66 -> 136 ;
137 [label="term <= 0.5\ngini = 0.499\nsamples = 804\nvalue = [418, 386]\nclass = No"] ;
136 -> 137 ;
138 [label="home_ownership <= 0.5\ngini = 0.415\nsamples = 524\nvalue = [370, 154]\nclass = No"] ;
137 -> 138 ;
139 [label="purpose <= 2.5\ngini = 0.362\nsamples = 274\nvalue = [209, 65]\nclass = No"] ;
138 -> 139 ;
140 [label="purpose <= 1.5\ngini = 0.371\nsamples = 215\nvalue = [162, 53]\nclass = No"] ;
139 -> 140 ;
141 [label="purpose <= 0.5\ngini = 0.368\nsamples = 210\nvalue = [159, 51]\nclass = No"] ;
140 -> 141 ;
142 [label="gini = 0.368\nsamples = 37\nvalue = [28, 9]\nclass = No"] ;
141 -> 142 ;
143 [label="gini = 0.368\nsamples = 173\nvalue = [131, 42]\nclass = No"] ;
141 -> 143 ;
144 [label="gini = 0.48\nsamples = 5\nvalue = [3, 2]\nclass = No"] ;
140 -> 144 ;
145 [label="purpose <= 4.5\ngini = 0.324\nsamples = 59\nvalue = [47, 12]\nclass = No"] ;
139 -> 145 ;
146 [label="purpose <= 3.5\ngini = 0.329\nsamples = 53\nvalue = [42, 11]\nclass = No"] ;
145 -> 146 ;
147 [label="gini = 0.32\nsamples = 25\nvalue = [20, 5]\nclass = No"] ;
146 -> 147 ;
148 [label="gini = 0.337\nsamples = 28\nvalue = [22, 6]\nclass = No"] ;
146 -> 148 ;
149 [label="gini = 0.278\nsamples = 6\nvalue = [5, 1]\nclass = No"] ;
145 -> 149 ;
150 [label="purpose <= 4.5\ngini = 0.459\nsamples = 250\nvalue = [161, 89]\nclass = No"] ;
138 -> 150 ;
151 [label="home_ownership <= 1.5\ngini = 0.463\nsamples = 234\nvalue = [149, 85]\nclass = No"] ;
150 -> 151 ;
152 [label="purpose <= 2.0\ngini = 0.49\nsamples = 42\nvalue = [24, 18]\nclass = No"] ;
151 -> 152 ;
153 [label="purpose <= 0.5\ngini = 0.48\nsamples = 35\nvalue = [21, 14]\nclass = No"] ;
152 -> 153 ;
154 [label="gini = 0.494\nsamples = 9\nvalue = [5, 4]\nclass = No"] ;
153 -> 154 ;
155 [label="gini = 0.473\nsamples = 26\nvalue = [16, 10]\nclass = No"] ;
153 -> 155 ;
156 [label="purpose <= 3.5\ngini = 0.49\nsamples = 7\nvalue = [3, 4]\nclass = Yes"] ;
152 -> 156 ;
157 [label="gini = 0.48\nsamples = 5\nvalue = [2, 3]\nclass = Yes"] ;
156 -> 157 ;
158 [label="gini = 0.5\nsamples = 2\nvalue = [1, 1]\nclass = No"] ;
156 -> 158 ;
159 [label="purpose <= 3.5\ngini = 0.454\nsamples = 192\nvalue = [125, 67]\nclass = No"] ;
151 -> 159 ;
160 [label="purpose <= 1.5\ngini = 0.455\nsamples = 191\nvalue = [124, 67]\nclass = No"] ;
159 -> 160 ;
161 [label="purpose <= 0.5\ngini = 0.459\nsamples = 168\nvalue = [108.0, 60.0]\nclass = No"] ;
160 -> 161 ;
162 [label="gini = 0.464\nsamples = 30\nvalue = [19, 11]\nclass = No"] ;
161 -> 162 ;
163 [label="gini = 0.458\nsamples = 138\nvalue = [89, 49]\nclass = No"] ;
161 -> 163 ;
164 [label="purpose <= 2.5\ngini = 0.423\nsamples = 23\nvalue = [16, 7]\nclass = No"] ;
160 -> 164 ;
165 [label="gini = 0.375\nsamples = 4\nvalue = [3, 1]\nclass = No"] ;
164 -> 165 ;
166 [label="gini = 0.432\nsamples = 19\nvalue = [13, 6]\nclass = No"] ;
164 -> 166 ;
167 [label="gini = 0.0\nsamples = 1\nvalue = [1, 0]\nclass = No"] ;
159 -> 167 ;
168 [label="home_ownership <= 1.5\ngini = 0.375\nsamples = 16\nvalue = [12, 4]\nclass = No"] ;
150 -> 168 ;
169 [label="gini = 0.0\nsamples = 2\nvalue = [2, 0]\nclass = No"] ;
168 -> 169 ;
170 [label="gini = 0.408\nsamples = 14\nvalue = [10, 4]\nclass = No"] ;
168 -> 170 ;
171 [label="purpose <= 0.5\ngini = 0.284\nsamples = 280\nvalue = [48.0, 232.0]\nclass = Yes"] ;
137 -> 171 ;
172 [label="home_ownership <= 0.5\ngini = 0.194\nsamples = 46\nvalue = [5, 41]\nclass = Yes"] ;
171 -> 172 ;
173 [label="gini = 0.159\nsamples = 23\nvalue = [2, 21]\nclass = Yes"] ;
172 -> 173 ;
174 [label="home_ownership <= 1.5\ngini = 0.227\nsamples = 23\nvalue = [3, 20]\nclass = Yes"] ;
172 -> 174 ;
175 [label="gini = 0.444\nsamples = 3\nvalue = [1, 2]\nclass = Yes"] ;
174 -> 175 ;
176 [label="gini = 0.18\nsamples = 20\nvalue = [2, 18]\nclass = Yes"] ;
174 -> 176 ;
177 [label="home_ownership <= 1.5\ngini = 0.3\nsamples = 234\nvalue = [43, 191]\nclass = Yes"] ;
171 -> 177 ;
178 [label="purpose <= 4.5\ngini = 0.264\nsamples = 134\nvalue = [21, 113]\nclass = Yes"] ;
177 -> 178 ;
179 [label="home_ownership <= 0.5\ngini = 0.278\nsamples = 126\nvalue = [21, 105]\nclass = Yes"] ;
178 -> 179 ;
180 [label="purpose <= 1.5\ngini = 0.288\nsamples = 103\nvalue = [18, 85]\nclass = Yes"] ;
179 -> 180 ;
181 [label="gini = 0.292\nsamples = 79\nvalue = [14, 65]\nclass = Yes"] ;
180 -> 181 ;
182 [label="purpose <= 3.0\ngini = 0.278\nsamples = 24\nvalue = [4, 20]\nclass = Yes"] ;
180 -> 182 ;
183 [label="gini = 0.26\nsamples = 13\nvalue = [2, 11]\nclass = Yes"] ;
182 -> 183 ;
184 [label="gini = 0.298\nsamples = 11\nvalue = [2, 9]\nclass = Yes"] ;
182 -> 184 ;
185 [label="purpose <= 1.5\ngini = 0.227\nsamples = 23\nvalue = [3, 20]\nclass = Yes"] ;
179 -> 185 ;
186 [label="gini = 0.278\nsamples = 18\nvalue = [3, 15]\nclass = Yes"] ;
185 -> 186 ;
187 [label="gini = 0.0\nsamples = 5\nvalue = [0, 5]\nclass = Yes"] ;
185 -> 187 ;
188 [label="gini = 0.0\nsamples = 8\nvalue = [0, 8]\nclass = Yes"] ;
178 -> 188 ;
189 [label="purpose <= 1.5\ngini = 0.343\nsamples = 100\nvalue = [22, 78]\nclass = Yes"] ;
177 -> 189 ;
190 [label="gini = 0.316\nsamples = 66\nvalue = [13, 53]\nclass = Yes"] ;
189 -> 190 ;
191 [label="purpose <= 5.5\ngini = 0.389\nsamples = 34\nvalue = [9, 25]\nclass = Yes"] ;
189 -> 191 ;
192 [label="purpose <= 4.5\ngini = 0.444\nsamples = 21\nvalue = [7, 14]\nclass = Yes"] ;
191 -> 192 ;
193 [label="purpose <= 3.0\ngini = 0.401\nsamples = 18\nvalue = [5, 13]\nclass = Yes"] ;
192 -> 193 ;
194 [label="gini = 0.375\nsamples = 12\nvalue = [3, 9]\nclass = Yes"] ;
193 -> 194 ;
195 [label="gini = 0.444\nsamples = 6\nvalue = [2, 4]\nclass = Yes"] ;
193 -> 195 ;
196 [label="gini = 0.444\nsamples = 3\nvalue = [2, 1]\nclass = No"] ;
192 -> 196 ;
197 [label="gini = 0.26\nsamples = 13\nvalue = [2, 11]\nclass = Yes"] ;
191 -> 197 ;
198 [label="term <= 0.5\ngini = 0.423\nsamples = 1445\nvalue = [439, 1006]\nclass = Yes"] ;
136 -> 198 ;
199 [label="purpose <= 1.5\ngini = 0.313\nsamples = 1249\nvalue = [243, 1006]\nclass = Yes"] ;
198 -> 199 ;
200 [label="home_ownership <= 0.5\ngini = 0.299\nsamples = 989\nvalue = [181, 808]\nclass = Yes"] ;
199 -> 200 ;
201 [label="purpose <= 0.5\ngini = 0.317\nsamples = 471\nvalue = [93, 378]\nclass = Yes"] ;
200 -> 201 ;
202 [label="gini = 0.335\nsamples = 113\nvalue = [24, 89]\nclass = Yes"] ;
201 -> 202 ;
203 [label="gini = 0.311\nsamples = 358\nvalue = [69, 289]\nclass = Yes"] ;
201 -> 203 ;
204 [label="purpose <= 0.5\ngini = 0.282\nsamples = 518\nvalue = [88, 430]\nclass = Yes"] ;
200 -> 204 ;
205 [label="home_ownership <= 1.5\ngini = 0.207\nsamples = 111\nvalue = [13, 98]\nclass = Yes"] ;
204 -> 205 ;
206 [label="gini = 0.1\nsamples = 19\nvalue = [1, 18]\nclass = Yes"] ;
205 -> 206 ;
207 [label="gini = 0.227\nsamples = 92\nvalue = [12, 80]\nclass = Yes"] ;
205 -> 207 ;
208 [label="home_ownership <= 1.5\ngini = 0.301\nsamples = 407\nvalue = [75, 332]\nclass = Yes"] ;
204 -> 208 ;
209 [label="gini = 0.288\nsamples = 63\nvalue = [11, 52]\nclass = Yes"] ;
208 -> 209 ;
210 [label="gini = 0.303\nsamples = 344\nvalue = [64, 280]\nclass = Yes"] ;
208 -> 210 ;
211 [label="home_ownership <= 0.5\ngini = 0.363\nsamples = 260\nvalue = [62, 198]\nclass = Yes"] ;
199 -> 211 ;
212 [label="purpose <= 2.5\ngini = 0.328\nsamples = 145\nvalue = [30, 115]\nclass = Yes"] ;
211 -> 212 ;
213 [label="gini = 0.43\nsamples = 16\nvalue = [5, 11]\nclass = Yes"] ;
212 -> 213 ;
214 [label="purpose <= 4.5\ngini = 0.312\nsamples = 129\nvalue = [25, 104]\nclass = Yes"] ;
212 -> 214 ;
215 [label="purpose <= 3.5\ngini = 0.322\nsamples = 119\nvalue = [24, 95]\nclass = Yes"] ;
214 -> 215 ;
216 [label="gini = 0.32\nsamples = 45\nvalue = [9, 36]\nclass = Yes"] ;
215 -> 216 ;
217 [label="gini = 0.323\nsamples = 74\nvalue = [15, 59]\nclass = Yes"] ;
215 -> 217 ;
218 [label="gini = 0.18\nsamples = 10\nvalue = [1, 9]\nclass = Yes"] ;
214 -> 218 ;
219 [label="home_ownership <= 1.5\ngini = 0.402\nsamples = 115\nvalue = [32, 83]\nclass = Yes"] ;
211 -> 219 ;
220 [label="purpose <= 4.5\ngini = 0.494\nsamples = 18\nvalue = [8, 10]\nclass = Yes"] ;
219 -> 220 ;
221 [label="purpose <= 2.5\ngini = 0.49\nsamples = 14\nvalue = [6, 8]\nclass = Yes"] ;
220 -> 221 ;
222 [label="gini = 0.5\nsamples = 2\nvalue = [1, 1]\nclass = No"] ;
221 -> 222 ;
223 [label="purpose <= 3.5\ngini = 0.486\nsamples = 12\nvalue = [5, 7]\nclass = Yes"] ;
221 -> 223 ;
224 [label="gini = 0.48\nsamples = 5\nvalue = [2, 3]\nclass = Yes"] ;
223 -> 224 ;
225 [label="gini = 0.49\nsamples = 7\nvalue = [3, 4]\nclass = Yes"] ;
223 -> 225 ;
226 [label="gini = 0.5\nsamples = 4\nvalue = [2, 2]\nclass = No"] ;
220 -> 226 ;
227 [label="purpose <= 4.5\ngini = 0.372\nsamples = 97\nvalue = [24, 73]\nclass = Yes"] ;
219 -> 227 ;
228 [label="purpose <= 2.5\ngini = 0.337\nsamples = 70\nvalue = [15, 55]\nclass = Yes"] ;
227 -> 228 ;
229 [label="gini = 0.444\nsamples = 12\nvalue = [4, 8]\nclass = Yes"] ;
228 -> 229 ;
230 [label="purpose <= 3.5\ngini = 0.307\nsamples = 58\nvalue = [11, 47]\nclass = Yes"] ;
228 -> 230 ;
231 [label="gini = 0.306\nsamples = 53\nvalue = [10, 43]\nclass = Yes"] ;
230 -> 231 ;
232 [label="gini = 0.32\nsamples = 5\nvalue = [1, 4]\nclass = Yes"] ;
230 -> 232 ;
233 [label="gini = 0.444\nsamples = 27\nvalue = [9, 18]\nclass = Yes"] ;
227 -> 233 ;
234 [label="gini = 0.0\nsamples = 196\nvalue = [196, 0]\nclass = No"] ;
198 -> 234 ;
}